digraph Tree {
node [shape=box] ;
0 [label="alkaline_phosphatase <= 168.5\ngini = 0.471\nsamples = 132\nvalue = [82, 50]\nclass = 0"] ;
1 [label="iron <= 73.5\ngini = 0.32\nsamples = 70\nvalue = [56, 14]\nclass = 0"] ;
0 -> 1 [labeldistance=2.5, labelangle=45, headlabel="True"] ;
2 [label="gini = 0.473\nsamples = 13\nvalue = [5, 8]\nclass = 1"] ;
1 -> 2 ;
3 [label="ferritin <= 638.5\ngini = 0.188\nsamples = 57\nvalue = [51, 6]\nclass = 0"] ;
1 -> 3 ;
4 [label="creatinine <= 1.235\ngini = 0.111\nsamples = 51\nvalue = [48, 3]\nclass = 0"] ;
3 -> 4 ;
5 [label="total_proteins <= 8.4\ngini = 0.043\nsamples = 45\nvalue = [44, 1]\nclass = 0"] ;
4 -> 5 ;
6 [label="gini = 0.0\nsamples = 39\nvalue = [39, 0]\nclass = 0"] ;
5 -> 6 ;
7 [label="gini = 0.278\nsamples = 6\nvalue = [5, 1]\nclass = 0"] ;
5 -> 7 ;
8 [label="gini = 0.444\nsamples = 6\nvalue = [4, 2]\nclass = 0"] ;
4 -> 8 ;
9 [label="gini = 0.5\nsamples = 6\nvalue = [3, 3]\nclass = 0"] ;
3 -> 9 ;
10 [label="haemoglobin <= 13.65\ngini = 0.487\nsamples = 62\nvalue = [26, 36]\nclass = 1"] ;
0 -> 10 [labeldistance=2.5, labelangle=-45, headlabel="False"] ;
11 [label="leukocytes <= 5.45\ngini = 0.423\nsamples = 46\nvalue = [14, 32]\nclass = 1"] ;
10 -> 11 ;
12 [label="gini = 0.0\nsamples = 13\nvalue = [0, 13]\nclass = 1"] ;
11 -> 12 ;
13 [label="ferritin <= 433.0\ngini = 0.489\nsamples = 33\nvalue = [14, 19]\nclass = 1"] ;
11 -> 13 ;
14 [label="total_bilirubin <= 1.3\ngini = 0.493\nsamples = 25\nvalue = [14, 11]\nclass = 0"] ;
13 -> 14 ;
15 [label="gini = 0.408\nsamples = 7\nvalue = [2, 5]\nclass = 1"] ;
14 -> 15 ;
16 [label="aspartate_transaminase <= 120.0\ngini = 0.444\nsamples = 18\nvalue = [12, 6]\nclass = 0"] ;
14 -> 16 ;
17 [label="gini = 0.165\nsamples = 11\nvalue = [10, 1]\nclass = 0"] ;
16 -> 17 ;
18 [label="gini = 0.408\nsamples = 7\nvalue = [2, 5]\nclass = 1"] ;
16 -> 18 ;
19 [label="gini = 0.0\nsamples = 8\nvalue = [0, 8]\nclass = 1"] ;
13 -> 19 ;
20 [label="leukocytes <= 11.2\ngini = 0.375\nsamples = 16\nvalue = [12, 4]\nclass = 0"] ;
10 -> 20 ;
21 [label="gini = 0.0\nsamples = 9\nvalue = [9, 0]\nclass = 0"] ;
20 -> 21 ;
22 [label="gini = 0.49\nsamples = 7\nvalue = [3, 4]\nclass = 1"] ;
20 -> 22 ;
}
